SVM-light Version V6.20
0 # kernel type
3 # kernel parameter -d 
1 # kernel parameter -g 
1 # kernel parameter -s 
1 # kernel parameter -r 
empty# kernel parameter -u 
106 # highest feature index 
13 # number of training documents 
2 # number of support vectors plus 1 
0 # threshold b, each following line is a SV (starting with alpha*y)
1 1:0.011036336 2:0.011548671 3:0.0052439314 4:0.011451371 5:0.010970311 6:0.0079173055 7:0.0046150307 8:-0.0080155032 9:-0.0089785224 10:0.011475598 11:-0.011817869 12:-0.0019768726 13:-0.010053508 14:0.005521297 15:0.0054144771 16:0.0047277878 17:-0.0053198799 18:-0.002325275 19:0.0083867814 20:-0.0070390315 21:-0.0039718118 22:0.0071557807 23:0.0075868359 24:-0.0016365761 25:0.0018394332 26:-0.00093015423 27:-0.00012630332 28:-0.0042735562 29:0.0027778144 30:0.010766087 31:-0.00029419555 32:0.0083535165 33:-0.0013589772 34:-0.00021892955 35:0.0021793202 36:-0.0075081722 37:-0.0018116916 38:-0.0018955959 39:0.0012989064 40:-0.0023732691 41:-0.0055320286 42:-0.003958832 43:-0.0014839218 44:0.0021911527 45:0.0002050749 46:-0.00044696947 47:-0.0064155799 48:0.00091201806 49:0.0032123097 50:0.0010612713 51:0.0042719194 52:0.0017023007 53:-0.00068630092 54:0.0048242444 55:-0.0038643731 56:0.0099903047 57:0.0051667243 58:-0.0020513702 59:-0.0027052646 60:0.011378026 61:-0.0016147778 62:-0.0013846175 63:0.002396581 64:0.00071473996 65:-0.0042770333 66:0.00077000656 67:-0.0020808629 68:0.0014914531 69:-0.0027889903 70:-0.0023265649 71:-0.0016985072 72:0.00080064544 73:-0.0030789771 74:-0.0024297172 75:0.00059033709 76:0.0077275881 77:7.5335964e-005 78:0.00062664825 79:0.0017306916 80:-0.0055796891 81:-0.0019933754 82:0.0025086114 83:-0.0040905699 84:0.0013128663 85:-0.0014140058 86:0.0037328356 87:-0.00012321197 88:0.0016712203 89:0.0029520374 90:-0.0020236557 91:-0.0015906381 92:0.00035186592 93:0.0027679631 94:0.0006041798 95:-0.0035727862 96:0.0015913605 97:0.001501459 98:-0.0057413615 99:0.0050000087 100:-0.0098626371 101:-0.0061890818 102:0.005397907 103:-0.0024099923 104:0.002280209 105:0.00204896 #
